
\data\
ngram 1=876
ngram 2=1679
ngram 3=68

\1-grams:
-1.497851	</s>
-99	<s>	-0.0003283544
-3.276002	ah	-0.05718945
-3.276002	aharakishe	-0.05834235
-2.974972	aidha	-0.05440996
-2.577032	ajuza	-0.1113178
-3.276002	akaanguka	-0.05765098
-2.974972	akabaki	-0.05834235
-3.276002	akainuliwa	-0.05765098
-3.276002	akakasirika	-0.05765098
-3.276002	akakimbia	-0.05857256
-3.276002	akambeba	-0.05695851
-3.276002	akamjibu	-0.05857256
-3.276002	akampatia	-0.05857256
-3.276002	akamtupa	-0.05834235
-3.276002	akamwambia	-0.05718945
-3.276002	akamwuliza	-0.05857256
-2.577032	akasema	-0.04263335
-3.276002	akaurukia	-0.05811201
-3.276002	akawatazama	-0.05672744
-3.276002	akifagia	-0.05742028
-3.276002	akihema	-0.05533843
-3.276002	akijaza	-0.05834235
-3.276002	akijipindapinda	-0.04973757
-2.430904	akila	-0.01731795
-2.974972	akilia	-0.04785445
-2.974972	akilini	-0.04430144
-3.276002	akimsadia	-0.05626493
-3.276002	akimtaja	-0.05557024
-3.276002	akimwangalia	-0.04973757
-3.276002	akipumzika	-0.05742028
-2.430904	akitela	-0.05184638
-2.974972	akitetemeka	-0.0537123
-3.276002	akiwa	-0.05857256
-3.276002	akizungumza	-0.04973757
-2.974972	alafu	-0.05718946
-3.276002	ali	-0.04477685
-3.276002	aliangua	-0.05857256
-3.276002	aliangusha	-0.05857256
-3.276002	alianza	-0.05857256
-3.276002	aliendelea	-0.05834235
-3.276002	aligundua	-0.05742028
-2.974972	aliishi	-0.03492521
-3.276002	alijaza	-0.05834235
-3.276002	alikimbia	-0.05857256
-3.276002	alikokwenda	-0.05857256
-3.276002	alikubali	-0.05557024
-3.276002	alikubaliana	-0.05765098
-2.071882	alikuwa	-0.04286742
-3.276002	alilia	-0.03662309
-3.276002	alim	-0.04477685
-3.276002	alimfokea	-0.05557024
-3.276002	alimfuata	-0.05857256
-3.276002	alimjibu	-0.05765098
-3.276002	alimkuta	-0.05718945
-3.276002	alimpatia	-0.05557024
-3.276002	alimsihi	-0.05718945
-3.276002	alimue	-0.05857256
-3.276002	alimuenua	-0.05557024
-2.974972	alimwambia	-0.05394498
-3.276002	aliondoka	-0.03662309
-3.276002	alipendeza	-0.03662309
-2.974972	alipiga	-0.05834235
-3.276002	alipo	-0.0551065
-3.276002	alipoacha	-0.05834235
-3.276002	alipoachwa	-0.05834235
-3.276002	alipofika	-0.05857256
-3.276002	alipoi	-0.05857256
-3.276002	alipoiona	-0.05857256
-3.276002	alipokuwa	-0.05857256
-3.276002	alipotu	-0.05857256
-3.276002	alirudi	-0.05649624
-2.497851	alisema	-0.04047924
-3.276002	alishangazwa	-0.03662309
-3.276002	alishtuka	-0.05557024
-3.276002	alisikia	-0.05742028
-3.276002	alisimama	-0.04477685
-3.276002	alisisitiza	-0.05857256
-3.276002	alitabasamu	-0.03662309
-3.276002	alitafakari	-0.05857256
-3.276002	alitishia	-0.05857256
-3.276002	alitupenda	-0.05834235
-3.276002	alivyojiabilia	-0.05857256
-3.276002	alivyoniuguza	-0.05857256
-3.276002	alivyoweza	-0.05857256
-3.276002	aliwaacha	-0.05557024
-3.276002	aliwaambia	-0.05857256
-3.276002	aliwaamsha	-0.05857256
-3.276002	aliwaandalia	-0.05811201
-3.276002	aliwabariki	-0.05834235
-3.276002	aliwaelezea	-0.05834235
-3.276002	aliwafunza	-0.04973757
-3.276002	aliwahakikishia	-0.05811201
-3.276002	aliwakaribisha	-0.04973757
-3.276002	aliwaomba	-0.05811201
-3.276002	aliwaonyesha	-0.05857256
-3.276002	aliwapeleka	-0.05649624
-3.276002	aliwapikia	-0.05834235
-3.276002	aliwatayarishia	-0.05811201
-3.276002	aliwaza	-0.05857256
-2.974972	aliyeitwa	-0.0523136
-2.798881	aliyekuwa	-0.05811203
-3.276002	aliyetupenda	-0.05811201
-3.276002	alizopata	-0.05626493
-3.276002	alizungumza	-0.03662309
-2.974972	ama	-0.04950263
-3.276002	amani	-0.05649624
-3.276002	amechukuliwa	-0.03662309
-3.276002	amedhoofika	-0.05695851
-3.276002	amefariki	-0.05533843
-3.276002	ameketi	-0.05765098
-3.276002	amelala	-0.05811201
-3.276002	amemchukua	-0.05557024
-3.276002	ameogopa	-0.05557024
-3.276002	amuangushe	-0.05695851
-2.798881	anaita	-0.1532103
-2.577032	anasema	-0.1744488
-3.276002	angaa	-0.05834235
-3.276002	angetuacha	-0.05742028
-3.276002	angewapa	-0.05718945
-2.372912	apiyo	-0.05464227
-3.276002	asante	-0.04973757
-3.276002	asije	-0.05857256
-2.974972	asubuhi	-0.05695851
-3.276002	atafungua	-0.05557024
-3.276002	atoroke	-0.05834235
-3.276002	awaeleze	-0.05857256
-2.577032	baada	-0.1051229
-2.798881	baadaye	-0.05533845
-2.798881	baadhi	-0.1403084
-2.577032	baba	-0.1368548
-3.276002	bado	-0.05857256
-3.276002	bahati	-0.05857256
-3.276002	balagha	-0.05857256
-2.974972	bali	-0.05672744
-3.276002	baraka	-0.05834235
-3.276002	baya	-0.04973757
-3.276002	bei	-0.05811201
-1.974972	bibi	-0.04579239
-3.276002	bibiye	-0.05857256
-2.974972	bidhaa	-0.05533844
-3.276002	bila	-0.05834235
-3.276002	biryani	-0.05857256
-3.276002	boma	-0.05857256
-2.974972	bora	-0.05742028
-3.276002	budi	-0.05857256
-3.276002	bustani	-0.05417753
-2.497851	cha	-0.04119847
-2.974972	chai	-0.05765098
-3.276002	chako	-0.05742028
-2.798881	chakula	-0.05626494
-3.276002	chetu	-0.03662309
-2.577032	chini	-0.1392306
-3.276002	chochote	-0.05533843
-3.276002	chumba	-0.05742028
-3.276002	damu	-0.05533843
-3.276002	daraja	-0.05718945
-2.798881	dawa	-0.2152733
-3.276002	dhati	-0.05857256
-3.276002	dhiki	-0.05857256
-2.974972	dume	-0.05788156
-3.276002	familia	-0.05834235
-2.430904	figo	-0.1049943
-2.974972	fomu	-0.05834235
-3.276002	fremu	-0.05857256
-3.276002	fuawe	-0.04477685
-3.276002	fulani	-0.05857256
-3.276002	fungua	-0.05765098
-2.974972	furaha	-0.04926756
-3.276002	gari	-0.05718945
-3.276002	gazeti	-0.05811201
-2.974972	ghafla	-0.05672744
-3.276002	ghamu	-0.05857256
-3.276002	gharika	-0.05788156
-3.276002	ghaya	-0.04643673
-3.276002	giza	-0.05857256
-3.276002	gofu	-0.05718945
-2.974972	hadi	-0.05557024
-3.276002	hafi	-0.04477685
-3.276002	hajifai	-0.04973757
-3.276002	hakika	-0.05857256
-3.276002	hakufahamu	-0.05857256
-3.276002	hakusonga	-0.05557024
-3.276002	hakuweza	-0.05857256
-3.276002	hali	-0.03662309
-3.276002	halikadhalika	-0.05857256
-3.276002	hamu	-0.03662309
-2.974972	hao	-0.2125123
-2.798881	hapa	-0.1515894
-2.798881	hapo	-0.1545949
-3.276002	haraka	-0.05857256
-3.276002	hasara	-0.03662309
-2.673942	hata	-0.1061757
-3.276002	hatimaye	-0.04477685
-3.276002	hatuna	-0.05857256
-3.276002	haujanitoka	-0.05857256
-3.276002	hawafuniki	-0.05788156
-3.276002	hawakutaka	-0.05834235
-3.276002	hawakuweza	-0.05857256
-3.276002	hawangeweza	-0.05834235
-2.974972	haya	-0.03199902
-2.974972	hayawi	-0.05811201
-2.577032	hayo	-0.02210013
-2.974972	hebu	-0.2115902
-3.276002	heri	-0.05857256
-2.276002	hiki	-0.1732891
-2.974972	hivi	-0.05765098
-2.974972	hivyo	-0.05788156
-2.497851	hiyo	-0.05278034
-3.276002	hospitali	-0.04643673
-3.276002	hospitalini	-0.05834235
-3.276002	huenda	-0.04477685
-3.276002	huko	-0.05857256
-2.577032	huku	-0.05718945
-3.276002	humu	-0.05742028
-2.673942	huo	-0.04287204
-3.276002	huru	-0.03662309
-3.276002	hurum	-0.05834235
-3.276002	huruma	-0.05718945
-3.276002	hutaki	-0.05834235
-3.276002	huwa	-0.05857256
-2.798881	huyo	-0.05695852
-2.798881	huyu	-0.225564
-3.276002	huzuni	-0.04643673
-3.276002	ijapokuwa	-0.05788156
-3.276002	ikanyesha	-0.05788156
-3.276002	ila	-0.05857256
-2.497851	ile	-0.1735492
-2.974972	ili	-0.05834235
-2.974972	ilikuwa	-0.03638095
-3.276002	ilinyesha	-0.05857256
-3.276002	ilipokaribia	-0.05857256
-3.276002	ilisemekana	-0.05603349
-3.276002	ilitupata	-0.05857256
-3.276002	iliwadia	-0.05857256
-2.974972	iliyofuata	-0.05742028
-2.974972	ime	-0.1989468
-3.276002	imekua	-0.05857256
-3.276002	ingekuwa	-0.05857256
-3.276002	ipate	-0.05857256
-3.276002	ishakwisha	-0.05834235
-3.276002	ishirini	-0.05857256
-3.276002	itakuwaje	-0.05857256
-3.276002	jamaa	-0.03662309
-3.276002	jambo	-0.05857256
-2.577032	je	-0.1156447
-3.276002	jeneza	-0.05765098
-3.276002	jicho	-0.05718945
-3.276002	jiko	-0.05765098
-2.798881	jinsi	-0.04453922
-2.974972	jirani	-0.05811201
-3.276002	jiwe	-0.03662309
-3.276002	joo	-0.05857256
-3.276002	jooo	-0.05857256
-3.276002	jooooo	-0.05672744
-2.577032	juu	-0.033952
-2.974972	kabati	-0.2115902
-2.974972	kabla	-0.2006067
-3.276002	kakonda	-0.05857256
-3.276002	kale	-0.05857256
-2.497851	kama	-0.09647798
-2.974972	kando	-0.04311061
-2.798881	karibu	-0.1328638
-3.276002	karibuni	-0.05857256
-2.430904	katika	-0.1665419
-2.974972	kavu	-0.05811201
-2.974972	kazi	-0.05765098
-3.276002	kelele	-0.05857256
-3.276002	kibanda	-0.05742028
-3.276002	kicheko	-0.03662309
-3.276002	kidogo	-0.05857256
-3.276002	kidole	-0.05857256
-3.276002	kifo	-0.05811201
-3.276002	kiini	-0.05672744
-2.577032	kijiji	-0.04263335
-2.276002	kijijini	-0.06435339
-3.276002	kikiendelea	-0.05765098
-2.673942	kila	-0.0551065
-2.673942	kile	-0.05371229
-3.276002	kilichokuwa	-0.05857256
-3.276002	kilichotendeka	-0.05811201
-2.974972	kilikuwa	-0.05649625
-2.974972	kilo	-0.04263336
-3.276002	kimoja	-0.05834235
-2.974972	kimya	-0.05811201
-3.276002	kipofu	-0.05718945
-3.276002	kipya	-0.05857256
-2.798881	kisha	-0.05695852
-3.276002	kisima	-0.05857256
-3.276002	kisu	-0.05834235
-3.276002	kitoweo	-0.05742028
-2.497851	kitunguu	-0.08556668
-3.276002	kiwe	-0.05857256
-3.276002	kofia	-0.05765098
-2.974972	kondoo	-0.2125123
-2.974972	koroga	-0.04430144
-3.276002	kuacha	-0.05834235
-3.276002	kuanza	-0.05857256
-3.276002	kubwa	-0.05557024
-3.276002	kucha	-0.05834235
-2.974972	kucheka	-0.05626493
-2.974972	kucheza	-0.190793
-3.276002	kuchezea	-0.05857256
-2.974972	kuchota	-0.2102034
-3.276002	kuchuna	-0.05834235
-3.276002	kudhihirisha	-0.05857256
-3.276002	kuelekea	-0.05649624
-3.276002	kuenda	-0.05672744
-3.276002	kufaana	-0.05857256
-3.276002	kufanana	-0.05857256
-3.276002	kufanya	-0.05834235
-3.276002	kufanyiwa	-0.05857256
-3.276002	kufungwa	-0.05834235
-3.276002	kuhesabu	-0.05857256
-2.798881	kuhusu	-0.05695852
-3.276002	kuil	-0.04973757
-3.276002	kuila	-0.05834235
-3.276002	kuimb	-0.05811201
-2.798881	kuimba	-0.04926756
-3.276002	kuingia	-0.05857256
-3.276002	kuisha
-3.276002	kuishi	-0.04973757
-3.276002	kujadiliana	-0.05718945
-3.276002	kuketi	-0.05811201
-3.276002	kukila	-0.05626493
-3.276002	kukonda	-0.04477685
-2.974972	kulia	-0.05324657
-2.974972	kuliko	-0.03370836
-2.974972	kulikuwa	-0.190793
-3.276002	kulingana	-0.04477685
-3.276002	kumaliza	-0.05857256
-3.276002	kumfa	-0.05718945
-3.276002	kumgonga	-0.05649624
-2.798881	kumpa	-0.04191652
-3.276002	kumpata	-0.05718945
-2.798881	kumtembelea	-0.2230141
-2.974972	kumuacha	-0.2095084
-2.974972	kumuaga	-0.05487445
-3.276002	kumuiga	-0.05649624
-3.276002	kumzika	-0.05834235
-2.798881	kuna	-0.2267181
-3.276002	kuni	-0.03662309
-3.276002	kuomba	-0.05857256
-2.974972	kuondoka	-0.05788156
-3.276002	kupanga	-0.05857256
-2.974972	kupika	-0.05811201
-3.276002	kupimwa	-0.04973757
-3.276002	kupumzika	-0.05557024
-3.276002	kurejea	-0.05742028
-2.974972	kurudi	-0.2111284
-3.276002	kusaidia	-0.05718945
-3.276002	kusakurasakura	-0.05857256
-3.276002	kusali	-0.05742028
-3.276002	kusema	-0.05834235
-3.276002	kushika	-0.05742028
-3.276002	kusitokee	-0.05834235
-3.276002	kutiwa	-0.05834235
-2.974972	kutoka	-0.05557024
-3.276002	kutujulia	-0.04477685
-3.276002	kutuona	-0.04973757
-3.276002	kututakia	-0.05788156
-3.276002	kuu	-0.05788156
-3.276002	kuudhihirisha	-0.05834235
-3.276002	kuunganisha	-0.05765098
-3.276002	kuuzia	-0.05834235
-3.276002	kuvaa	-0.05834235
-3.276002	kuvuma	-0.05718945
-2.196821	kuwa	-0.03999908
-3.276002	kuwafu	-0.04477685
-3.276002	kuwaona	-0.05834235
-3.276002	kuzifungua	-0.05765098
-3.276002	kuzisoma	-0.05834235
-1.684937	kwa	-0.04886175
-3.276002	kwake	-0.04973757
-2.497851	kwamba	-0.04667334
-3.276002	kwangu	-0.04477685
-3.276002	kwani	-0.05811201
-2.577032	kwanza	-0.05044164
-2.974972	kweli	-0.2095084
-2.497851	kwenda	-0.1299771
-2.974972	kwendaaa	-0.2095084
-2.497851	kwenye	-0.05626494
-2.974972	kwetu	-0.05695851
-2.430904	la	-0.05487446
-3.276002	lake	-0.05834235
-2.321759	lakini	-0.2159114
-2.497851	lazima	-0.08000647
-2.321759	leah	-0.05278033
-3.276002	lijalo	-0.05857256
-3.276002	lije	-0.05857256
-3.276002	likanijia	-0.05834235
-2.798881	likizo	-0.03589625
-2.974972	lilikuwa	-0.05811201
-3.276002	lililobaki	-0.05834235
-3.276002	lilipoanza	-0.05857256
-3.276002	lilisombwa	-0.03662309
-3.276002	liwalo	-0.05857256
-3.276002	liwe	-0.05857256
-2.129874	lodipo	-0.1310893
-3.276002	lomongin	-0.05834235
-2.497851	lulu	-0.224175
-2.974972	maadamu	-0.05626493
-2.974972	maanake	-0.05788156
-3.276002	maandishi	-0.04477685
-3.276002	maarufu	-0.05857256
-2.974972	machozi	-0.04950263
-2.974972	madaktari	-0.05718946
-3.276002	magari	-0.05857256
-3.276002	mahali	-0.05857256
-2.798881	maisha	-0.1405464
-2.798881	majambazi	-0.05788157
-3.276002	majani	-0.05834235
-2.196821	maji	-0.07694945
-3.276002	majirani	-0.05626493
-3.276002	makaa	-0.05811201
-3.276002	malishoni	-0.04973757
-2.099911	mama	-0.09084781
-2.673942	mamake	-0.2064835
-2.430904	mamba	-0.0560335
-3.276002	manufaa	-0.05742028
-3.276002	mapema	-0.05742028
-3.276002	mapenzi	-0.04643673
-2.673942	mara	-0.03322066
-3.276002	maradhi	-0.05765098
-2.974972	marafiki	-0.05834235
-3.276002	mashamba	-0.04643673
-3.276002	mashariki	-0.05857256
-3.276002	maswali	-0.04643673
-3.276002	mateke	-0.05857256
-3.276002	matumaini	-0.05857256
-2.974972	maumivu	-0.05834235
-3.276002	mauti	-0.05834235
-2.974972	mavazi	-0.05742028
-2.798881	mawingu	-0.04263337
-3.276002	mayai	-0.03662309
-3.276002	maziwa	-0.03662309
-3.276002	mbali	-0.05857256
-3.276002	mbaya	-0.05857256
-2.974972	mboga	-0.05811201
-3.276002	mbona	-0.05857256
-2.974972	mbuni	-0.2113594
-3.276002	mchanga	-0.05834235
-2.798881	mchele	-0.05695852
-3.276002	mchuzi	-0.05278033
-3.276002	mengi	-0.05811201
-3.276002	mengine	-0.05857256
-3.276002	meupe	-0.05857256
-3.276002	meusi	-0.05857256
-2.974972	mgongoni	-0.05533844
-3.276002	mhanga	-0.05811201
-3.276002	mhunzi	-0.05742028
-2.798881	miaka	-0.05788157
-3.276002	miezi	-0.05857256
-3.276002	mifugo	-0.05857256
-3.276002	mifuko	-0.05626493
-3.276002	milima	-0.05857256
-3.276002	milizamu	-0.04643673
-2.974972	mimea	-0.05487445
-2.497851	mimi	-0.08073576
-3.276002	mingi	-0.05857256
-3.276002	mintaarafu	-0.03662309
-3.276002	mitandaoni	-0.05811201
-3.276002	mitano	-0.05765098
-2.974972	mithili	-0.2006067
-3.276002	miungu	-0.05811201
-3.276002	mizigo	-0.05626493
-3.276002	mje	-0.05811201
-2.372912	mjini	-0.04667334
-3.276002	mkali	-0.05857256
-3.276002	mkeka	-0.05765098
-3.276002	mkewe	-0.05278033
-3.276002	mkono	-0.05857256
-3.276002	mkubwa	-0.05718945
-3.276002	mkwe	-0.05857256
-3.276002	mla	-0.05811201
-2.321759	moja	-0.04167728
-2.673942	mooo	-0.2115902
-2.974972	moooooo	-0.05649625
-2.577032	moyo	-0.05603349
-2.974972	mpaka	-0.2125123
-3.276002	mrembo	-0.03662309
-3.276002	msalie	-0.05857256
-3.276002	msemo	-0.05603349
-2.798881	mti	-0.05231361
-3.276002	mtini	-0.03662309
-2.798881	mto	-0.05510651
-2.974972	mtu	-0.05464227
-3.276002	mtume	-0.05857256
-3.276002	mu	-0.04477685
-3.276002	muda	-0.05834235
-3.276002	muhali	-0.04973757
-3.276002	muhimu	-0.05742028
-2.430904	mvua	-0.04596313
-3.276002	mvulana	-0.05834235
-3.276002	mwa	-0.05834235
-3.276002	mwanamke	-0.05857256
-3.276002	mwanawe	-0.05811201
-3.276002	mwangalifu	-0.05788156
-3.276002	mwanzo	-0.05857256
-3.276002	mwao	-0.05834235
-2.974972	mwenye	-0.05695851
-3.276002	mwi	-0.04477685
-3.276002	mwili	-0.05765098
-3.276002	mwingi	-0.04477685
-2.798881	mwingine	-0.03831438
-3.276002	mwisho	-0.05857256
-3.276002	mwororo	-0.05857256
-3.276002	mzaliwa	-0.05811201
-3.276002	mzee	-0.05834235
-3.276002	mzima	-0.05857256
-1.302874	na	-0.09529702
-3.276002	naenda	-0.05857256
-3.276002	nakwambia	-0.05834235
-3.276002	namna	-0.04643673
-3.276002	nao	-0.05695851
-3.276002	nasahau	-0.05811201
-2.798881	nawe	-0.05742029
-2.577032	naye	-0.03052849
-2.974972	nazi	-0.0523136
-3.276002	nchi	-0.05834235
-2.974972	ndani	-0.03199902
-3.276002	ndefu	-0.04643673
-2.974972	ndege	-0.05834235
-3.276002	ndimi	-0.05834235
-2.798881	ndio	-0.05765099
-2.673942	ndiye	-0.1641524
-3.276002	ndiyo	-0.05857256
-2.974972	ndoo	-0.2006067
-2.430904	ndugu	-0.09036174
-3.276002	ngamia	-0.05857256
-3.276002	ngea	-0.05765098
-3.276002	ngia	-0.05649624
-2.276002	ngombe	-0.07414544
-3.276002	nguvu	-0.05417753
-2.099911	ni	-0.09093797
-3.276002	nibebe	-0.05834235
-3.276002	nife	-0.04477685
-3.276002	nijifanye	-0.05603349
-3.276002	nikiugua	-0.05834235
-3.276002	nikiwa	-0.05857256
-2.974972	nilihisi	-0.2115902
-3.276002	nilihofia	-0.05603349
-3.276002	nilihuzunika	-0.05695851
-3.276002	nilijizuia	-0.05857256
-3.276002	nilijua	-0.05533843
-3.276002	nilikata	-0.05857256
-3.276002	nilikua	-0.05857256
-2.798881	nilikumbuka	-0.05510651
-2.974972	nilikuwa	-0.05834235
-3.276002	nilimhurumia	-0.05695851
-3.276002	nilimshikilia	-0.05857256
-3.276002	nilimtupia	-0.05857256
-3.276002	nilipe	-0.05857256
-3.276002	nilipokuwa	-0.05857256
-3.276002	nilipomtaza	-0.05834235
-3.276002	nilitanabahi	-0.05811201
-3.276002	nilitoa	-0.05834235
-3.276002	nilitokwa	-0.03662309
-3.276002	nilituhumu	-0.05603349
-3.276002	niliyoyaona	-0.05857256
-3.276002	nimejitolea	-0.05857256
-3.276002	nimesahau	-0.05811201
-3.276002	nimeumia	-0.05857256
-2.974972	nina	-0.05788156
-3.276002	ninahitaji	-0.05857256
-3.276002	ninaogopa	-0.05557024
-2.673942	ninapenda	-0.6560479
-3.276002	ningempa	-0.05718945
-3.276002	ningewaambia	-0.05834235
-2.577032	nini	-0.08972315
-3.276002	nirudi	-0.04973757
-3.276002	nisaidie	-0.05695851
-3.276002	nisimtazame	-0.05834235
-3.276002	nisingefikisha	-0.05834235
-3.276002	nisingekuwa	-0.05834235
-3.276002	nisingemfaa	-0.05718945
-3.276002	nisingependa	-0.05603349
-3.276002	nitachota	-0.05603349
-3.276002	nitajificha	-0.05857256
-3.276002	nitarudi	-0.04973757
-3.276002	nitawasubiri	-0.05857256
-3.276002	nitoke	-0.05857256
-3.276002	nitoroke	-0.05788156
-3.276002	niukate	-0.05765098
-3.276002	niyapitie	-0.05834235
-2.798881	nje	-0.04572614
-3.276002	njia	-0.04643673
-3.276002	njooni	-0.05834235
-2.372912	nyama	-0.1242245
-3.276002	nyimbo	-0.05857256
-2.974972	nyingi	-0.05811201
-2.974972	nyingine	-0.05788156
-3.276002	nyuma	-0.04643673
-3.276002	nyumba	-0.05857256
-2.497851	nyumbani	-0.0438255
-3.276002	nyundo	-0.04643673
-3.276002	nzito	-0.05834235
-2.129874	odongo	-0.4779319
-2.577032	opiyo	-0.03516817
-3.276002	pa	-0.05857256
-3.276002	pakubwa	-0.05857256
-2.974972	pale	-0.05649625
-3.276002	paliishi	-0.05857256
-3.276002	pambajioni	-0.05857256
-2.673942	pamoja	-0.1559851
-3.276002	pazia	-0.05742028
-2.974972	peke	-0.2115902
-2.974972	pekee	-0.04548901
-3.276002	pembe	-0.05672744
-3.276002	pembeni	-0.05811201
-3.276002	penda	-0.05695851
-2.974972	pendo	-0.2092764
-3.276002	pengine	-0.05811201
-3.276002	pesa	-0.05857256
-3.276002	pete	-0.03662309
-2.577032	pia	-0.09069527
-2.577032	pilau	-0.09743986
-2.673942	pili	-0.04856157
-3.276002	polepole	-0.05857256
-3.276002	pori	-0.03662309
-3.276002	punda	-0.05857256
-3.276002	punde	-0.05557024
-2.974972	rafiki	-0.04619999
-3.276002	raha	-0.04643673
-3.276002	rasmi	-0.04643673
-3.276002	ripoti	-0.04643673
-2.129874	roba	-0.08519457
-3.276002	robo	-0.05834235
-3.276002	sababu	-0.04643673
-3.276002	sabuni	-0.05695851
-3.276002	safari	-0.05857256
-2.974972	safarini	-0.05742028
-3.276002	samaki	-0.05626493
-2.372912	sana	-0.08766467
-3.276002	sanda	-0.05857256
-2.321759	sasa	-0.1307546
-2.974972	saumu	-0.05626493
-2.974972	sauti	-0.04596312
-3.276002	sawa	-0.05788156
-3.276002	sehemu	-0.05834235
-3.276002	shakiki	-0.05857256
-2.974972	shambani	-0.05834235
-3.276002	shauri	-0.05811201
-3.276002	shingoni	-0.05765098
-3.276002	shule	-0.05857256
-3.276002	shuleni	-0.05765098
-2.974972	si	-0.04453921
-2.234609	siku	-0.3833341
-3.276002	sikuwa	-0.03662309
-2.974972	simu	-0.04453921
-2.974972	sitaki	-0.2125123
-3.276002	sitapona	-0.05695851
-3.276002	sivyo	-0.05857256
-3.276002	siwezi	-0.05742028
-3.276002	sofa	-0.05765098
-3.276002	soko	-0.05557024
-2.372912	sokwe	-0.08812965
-3.276002	sori	-0.05718945
-3.276002	sote	-0.05834235
-3.276002	stethoskopu	-0.05857256
-3.276002	subuhi	-0.05557024
-3.276002	sukari	-0.03662309
-3.276002	sweta	-0.04973757
-3.276002	tafadhali	-0.05857256
-3.276002	tanga	-0.05811201
-3.276002	tasa	-0.05765098
-3.276002	tayari	-0.04973757
-3.276002	taza	-0.04477685
-3.276002	tazama	-0.05857256
-2.974972	tena	-0.05533844
-3.276002	thelathini	-0.03662309
-2.798881	thomo	-0.04191652
-3.276002	toka	-0.05857256
-2.798881	tu	-0.04879704
-3.276002	tuchote	-0.05603349
-3.276002	tui	-0.05857256
-3.276002	tukimwacha	-0.05834235
-3.276002	tukingoja	-0.05718945
-3.276002	tukiwa	-0.05857256
-3.276002	tuliagizwa	-0.05857256
-2.974972	tulianza	-0.05811201
-3.276002	tulifurahi	-0.05603349
-3.276002	tuliingizwa	-0.05718945
-2.673942	tulikuwa	-0.05649624
-3.276002	tulipatiwa	-0.05834235
-3.276002	tulipendana	-0.04477685
-2.974972	tulipokuwa	-0.05834235
-3.276002	tuliratibiwa	-0.05857256
-3.276002	tuliyaona	-0.05811201
-3.276002	tulizofaa	-0.05857256
-3.276002	tumeingoja	-0.05718945
-3.276002	tumejitayarisha	-0.04477685
-3.276002	tumeketi	-0.05857256
-3.276002	tumpige	-0.05857256
-3.276002	tungali	-0.05857256
-3.276002	tuondoke	-0.05649624
-2.497851	twende	-0.1490299
-3.276002	ubwabwa	-0.05857256
-3.276002	uchovu	-0.05857256
-3.276002	uchungu	-0.05857256
-2.974972	udugu	-0.05417753
-3.276002	ufadhili	-0.05278033
-3.276002	ufagio	-0.05857256
-3.276002	ugali	-0.05857256
-3.276002	uguzwe	-0.05834235
-3.276002	ujumbe	-0.05278033
-3.276002	ukaanza	-0.05857256
-3.276002	ukipigapiga	-0.05834235
-2.974972	uko	-0.2118209
-2.798881	ulikuwa	-0.05672745
-3.276002	ulinidanganya	-0.05857256
-3.276002	uliota	-0.05857256
-3.276002	umba	-0.05857256
-2.798881	umefika	-0.1513573
-2.974972	umri	-0.2069503
-2.974972	unachemsha	-0.2111284
-3.276002	unachukua	-0.05811201
-3.276002	unadhani	-0.05533843
-3.276002	unahitaji	-0.05765098
-2.974972	unaiona	-0.2111284
-3.276002	unaitia	-0.05742028
-2.673942	unakaanga	-0.05672744
-3.276002	unakaangia	-0.03662309
-2.974972	unakata	-0.2115902
-3.276002	unakoroga	-0.05834235
-3.276002	unareje	-0.05765098
-3.276002	unarejesha	-0.05857256
-3.276002	unatia	-0.05834235
-3.276002	unaweza	-0.05857256
-3.276002	uoshe	-0.05811201
-2.673942	upande	-0.1721689
-3.276002	upasuaji	-0.05834235
-3.276002	upepo	-0.05857256
-2.798881	usiku	-0.05695852
-3.276002	usiponipatia	-0.05765098
-3.276002	utajuta	-0.05557024
-3.276002	utasikia	-0.05857256
-3.276002	uvamizi	-0.05278033
-3.276002	uwa	-0.05765098
-2.430904	vile	-0.1227545
-3.276002	vilevile	-0.04477685
-3.276002	vimbimbi	-0.04973757
-3.276002	vingine	-0.05788156
-2.974972	vipepeo	-0.190793
-3.276002	vitabu	-0.03662309
-1.861029	wa	-0.06004639
-2.673942	wafunika	-0.09137722
-3.276002	waitoe	-0.05718945
-2.974972	wajukuu	-0.2120515
-3.276002	wakaishi	-0.04973757
-3.276002	wakakusanya	-0.05857256
-3.276002	wakaondoka	-0.05834235
-2.430904	wakati	-0.09270674
-3.276002	wakavuka	-0.05811201
-3.276002	wakaweka	-0.05857256
-2.673942	wake	-0.05603349
-2.798881	wakeze	-0.2267181
-3.276002	wako	-0.05857256
-3.276002	wala	-0.05834235
-2.974972	wali	-0.03028292
-2.974972	waliamini	-0.05533844
-3.276002	walicheza	-0.05811201
-2.974972	walienda	-0.05742028
-3.276002	walifunganya	-0.05857256
-2.974972	walifurahi	-0.03638095
-3.276002	walifurahia	-0.05834235
-3.276002	walihesabu	-0.05857256
-3.276002	waliingia	-0.05834235
-3.276002	waliiona	-0.05857256
-3.276002	waliishi	-0.03662309
-3.276002	waliitazamia	-0.05811201
-3.276002	walijaribu	-0.05857256
-3.276002	waliketi	-0.05765098
-3.276002	walikubali	-0.05742028
-3.276002	walikuja	-0.05857256
-3.276002	walikunywa	-0.05834235
-2.974972	walikusanyika	-0.05788156
-2.798881	walikuwa	-0.05765099
-2.974972	walilala	-0.04926756
-3.276002	walilazimika	-0.05834235
-3.276002	walimkumbatia	-0.03662309
-3.276002	walimkuta	-0.05417753
-2.974972	walimsaidia	-0.2083475
-3.276002	walimshambulia	-0.05557024
-3.276002	walimsihi	-0.05417753
-3.276002	walimtafuta	-0.05557024
-2.974972	walimwambia	-0.05487445
-3.276002	walimwona	-0.04477685
-3.276002	walingoja	-0.04973757
-2.974972	walio	-0.04453921
-3.276002	waliondoka	-0.05857256
-3.276002	waliou	-0.05834235
-2.974972	walioula	-0.2039075
-3.276002	walipakia	-0.05857256
-3.276002	walipanda	-0.05857256
-3.276002	walipendwa	-0.03662309
-3.276002	walipofika	-0.05649624
-3.276002	walipokaribia	-0.05857256
-3.276002	walipoondoka	-0.05857256
-3.276002	walirejea	-0.05742028
-3.276002	walitafuta	-0.05857256
-3.276002	walitoka	-0.05811201
-3.276002	walitujia	-0.05857256
-3.276002	walivamia	-0.05765098
-3.276002	waliwaambia	-0.05834235
-3.276002	walizofunzwa	-0.05857256
-3.276002	walizomletea	-0.05834235
-3.276002	walizompelekea	-0.05765098
-3.276002	walizonunua	-0.04477685
-3.276002	wamrudishie	-0.05834235
-3.276002	wamsi	-0.05857256
-3.276002	wamuache	-0.05765098
-3.276002	wamuadhibu	-0.05765098
-3.276002	wanafinika	-0.05672744
-3.276002	wanawaza	-0.05811201
-3.276002	wangecheza	-0.05765098
-3.276002	wangemtafuta	-0.05557024
-3.276002	wangepanda	-0.05834235
-2.577032	wangu	-0.04903235
-3.276002	wanyama	-0.05278033
-3.276002	wao	-0.05788156
-3.276002	waondoke	-0.03662309
-2.577032	wapi	-0.0931161
-3.276002	wasaa	-0.05765098
-3.276002	wasimdhuru	-0.05718945
-3.276002	watakachokula	-0.05834235
-3.276002	watakavyotoroka	-0.05718945
-2.974972	wateja	-0.05811201
-2.798881	watoto	-0.05742029
-2.798881	watu	-0.05626494
-3.276002	wavuvi	-0.05811201
-2.673942	wawili	-0.04263335
-3.276002	wazazi	-0.05765098
-3.276002	wazo	-0.05857256
-3.276002	wengi	-0.05695851
-2.673942	wengine	-0.05580192
-2.798881	wewe	-0.1541338
-3.276002	wezi	-0.05278033
-3.276002	wimbo	-0.05765098
-3.276002	woga	-0.05857256
-2.974972	wote	-0.05811201
-1.551726	ya	-0.03056638
-2.497851	yake	-0.02856002
-2.577032	yako	-0.1528424
-3.276002	yale	-0.05857256
-2.798881	yalikuwa	-0.05440997
-3.276002	yaliniatua	-0.05765098
-3.276002	yalinidondoka	-0.04477685
-3.276002	yaliyonipitia	-0.05834235
-3.276002	yaliyopita	-0.03662309
-3.276002	yalizidi	-0.05603349
-3.276002	yamemdhilisha	-0.05834235
-2.129874	yangu	-0.08336488
-2.234609	yao	-0.048326
-3.276002	yenyewe	-0.05834235
-2.974972	yetu	-0.05788156
-2.974972	yeye	-0.05649625
-3.276002	yeyote	-0.05857256
-3.276002	yote	-0.05626493
-3.276002	yowe	-0.04973757
-2.372912	yuko	-0.1484155
-2.798881	yule	-0.05695852
-2.798881	za	-0.05672745
-2.673942	zaidi	-0.03807316
-3.276002	zake	-0.05857256
-2.974972	zamani	-0.05649625
-3.276002	zamu	-0.05834235
-3.276002	zao	-0.05811201
-2.577032	zawadi	-0.05464226
-3.276002	zili	-0.05857256
-3.276002	zilikuwa	-0.05857256
-3.276002	zilisombwa	-0.03662309
-3.276002	zimeharibika	-0.05857256
-3.276002	ziwa	-0.05857256
-3.276002	ziwani	-0.05857256
-3.276002	zote	-0.05857256

\2-grams:
-2.682787	<s> aidha
-2.682787	<s> akabaki
-2.682787	<s> alimue
-2.682787	<s> alipofika
-2.682787	<s> aliwaandalia
-2.682787	<s> aliyekuwa
-2.682787	<s> asubuhi
-2.682787	<s> baadhi
-2.682787	<s> baba
-2.682787	<s> bibi
-2.682787	<s> figo
-2.682787	<s> ghafla
-2.682787	<s> hali
-2.682787	<s> hao
-2.682787	<s> huwa
-2.682787	<s> ilikuwa
-2.682787	<s> ishakwisha
-2.682787	<s> je
-2.682787	<s> kabla
-2.682787	<s> kama
-2.682787	<s> kiini
-2.682787	<s> kitunguu
-2.682787	<s> kuna
-2.682787	<s> kuu
-2.682787	<s> kwa
-2.682787	<s> leah
-1.895904	<s> maji	-0.05464834
-2.682787	<s> mamake
-2.682787	<s> mithili
-2.682787	<s> mkewe
-2.682787	<s> mvua
-2.682787	<s> mwingine
-1.290956	<s> na
-2.682787	<s> nakwambia
-2.682787	<s> nawe
-2.682787	<s> ngea
-2.682787	<s> ngia
-2.682787	<s> ngombe
-2.682787	<s> nikiwa
-2.682787	<s> nilikumbuka
-2.682787	<s> nilitanabahi
-2.682787	<s> nisingefikisha
-2.682787	<s> penda
-2.682787	<s> sanda
-2.682787	<s> siku
-2.682787	<s> sokwe
-2.682787	<s> tu
-2.682787	<s> umba
-2.682787	<s> unakaanga
-2.682787	<s> unarejesha
-2.682787	<s> upepo
-2.682787	<s> vile
-2.682787	<s> wakaondoka
-2.682787	<s> watoto
-2.682787	<s> yako
-2.682787	<s> yangu
-2.682787	<s> yeyote
-0.8974571	ah la
-0.8974571	aharakishe ghafla
-1.198487	aidha alikuwa
-1.198487	aidha nilikumbuka
-1.596427	ajuza akitela
-1.596427	ajuza aliwaomba
-1.596427	ajuza awaeleze
-0.809544	ajuza huyo
-0.8974571	akaanguka chini
-1.198487	akabaki fremu
-1.198487	akabaki gofu
-0.8974571	akainuliwa juu
-0.8974571	akakasirika akasema
-0.8974571	akakimbia unadhani
-0.8974571	akambeba sokwe
-0.8974571	akamjibu usiponipatia
-0.8974571	akampatia sweta
-0.8974571	akamtupa mgongoni
-0.8974571	akamwambia akila
-0.8974571	akamwuliza unahitaji
-1.596427	akasema </s>
-1.596427	akasema kwanza
-1.596427	akasema nina
-1.596427	akasema ninahitaji
-1.596427	akasema ulinidanganya
-0.8974571	akaurukia mti
-0.8974571	akawatazama leah
-0.8974571	akifagia alisema
-0.8974571	akihema mama
-0.8974571	akijaza ndoo
-0.8974571	akijipindapinda kwa
-1.742555	akila </s>
-1.742555	akila alimfokea
-1.742555	akila alimwambia
-1.742555	akila alisisitiza
-1.742555	akila hivyo
-1.742555	akila kuwa
-1.742555	akila na
-1.198487	akilia kwa
-1.198487	akilia sana
-1.198487	akilini </s>
-1.198487	akilini ama
-0.8974571	akimsadia siku
-0.8974571	akimtaja lodipo
-0.8974571	akimwangalia kwa
-0.8974571	akipumzika kwenye
-1.742555	akitela alikuwa
-1.742555	akitela alirudi
-1.742555	akitela alishangazwa
-1.742555	akitela alitafakari
-1.742555	akitela mamake
-1.742555	akitela pekee
-1.742555	akitela pia
-1.198487	akitetemeka roba
-1.198487	akitetemeka sana
-0.8974571	akiwa amelala
-0.8974571	akizungumza kwa
-1.198487	alafu ile
-1.198487	alafu unachukua
-0.8974571	ali </s>
-0.8974571	aliangua kicheko
-0.8974571	aliangusha ufagio
-0.8974571	alianza kumuiga
-0.8974571	aliendelea hadi
-0.8974571	aligundua kwamba
-1.198487	aliishi katika
-1.198487	aliishi na
-0.8974571	alijaza ndoo
-0.8974571	alikimbia haraka
-0.8974571	alikokwenda mwanawe
-0.8974571	alikubali roba
-0.8974571	alikubaliana naye
-2.101577	alikuwa akijipindapinda
-1.314694	alikuwa akilia
-2.101577	alikuwa akitetemeka
-2.101577	alikuwa akizungumza
-2.101577	alikuwa amedhoofika
-2.101577	alikuwa amefariki
-2.101577	alikuwa ameketi
-2.101577	alikuwa ameogopa
-2.101577	alikuwa kakonda
-2.101577	alikuwa kipofu
-2.101577	alikuwa mwanamke
-2.101577	alikuwa mwangalifu
-2.101577	alikuwa na
-2.101577	alikuwa rafiki
-2.101577	alikuwa wa
-0.8974571	alilia na
-0.8974571	alim </s>
-0.8974571	alimfokea lodipo
-0.8974571	alimfuata polepole
-0.8974571	alimjibu huku
-0.8974571	alimkuta mamba
-0.8974571	alimpatia odongo
-0.8974571	alimsihi la
-0.8974571	alimue alimuenua
-0.8974571	alimuenua roba
-1.198487	alimwambia lodipo
-1.198487	alimwambia mamba
-0.8974571	aliondoka na
-0.8974571	alipendeza na
-1.198487	alipiga kelele
-1.198487	alipiga yowe
-0.8974571	alipo alikuwa
-0.8974571	alipoacha kucheka
-0.8974571	alipoachwa peke
-0.8974571	alipofika hawakutaka
-0.8974571	alipoi alipoiona
-0.8974571	alipoiona nchi
-0.8974571	alipokuwa akijaza
-0.8974571	alipotu alitupenda
-0.8974571	alirudi kijijini
-1.675608	alisema huku
-1.675608	alisema kwa
-1.675608	alisema leah
-1.675608	alisema mama
-1.675608	alisema mooo
-1.675608	alisema twende
-0.8974571	alishangazwa na
-0.8974571	alishtuka roba
-0.8974571	alisikia kwamba
-0.8974571	alisimama </s>
-0.8974571	alisisitiza waondoke
-0.8974571	alitabasamu na
-0.8974571	alitafakari itakuwaje
-0.8974571	alitishia kuwafu
-0.8974571	alitupenda tulipokuwa
-0.8974571	alivyojiabilia kwangu
-0.8974571	alivyoniuguza nilipokuwa
-0.8974571	alivyoweza ali
-0.8974571	aliwaacha odongo
-0.8974571	aliwaambia wamsi
-0.8974571	aliwaamsha walimkuta
-0.8974571	aliwaandalia chakula
-0.8974571	aliwabariki wajukuu
-0.8974571	aliwaelezea wateja
-0.8974571	aliwafunza kwa
-0.8974571	aliwahakikishia watu
-0.8974571	aliwakaribisha kwa
-0.8974571	aliwaomba majambazi
-0.8974571	aliwaonyesha namna
-0.8974571	aliwapeleka ngombe
-0.8974571	aliwapikia wateja
-0.8974571	aliwatayarishia chakula
-0.8974571	aliwaza nitajificha
-1.198487	aliyeitwa lodipo
-1.198487	aliyeitwa roba
-1.374578	aliyekuwa akimsadia
-1.374578	aliyekuwa amechukuliwa
-1.374578	aliyekuwa hajifai
-0.8974571	aliyetupenda watoto
-0.8974571	alizopata siku
-0.8974571	alizungumza na
-1.198487	ama kwa
-1.198487	ama nijifanye
-0.8974571	amani kijijini
-0.8974571	amechukuliwa na
-0.8974571	amedhoofika sana
-0.8974571	amefariki mama
-0.8974571	ameketi chini
-0.8974571	amelala hapo
-0.8974571	amemchukua roba
-0.8974571	ameogopa roba
-0.8974571	amuangushe sokwe
-1.374578	anaita lulu
-0.5876952	anaita wewe	0.02846901
-0.809544	anasema lakini	0.08361583
-0.809544	anasema sitaki	0.111607
-1.596427	anasema yeye
-0.8974571	angaa lilikuwa
-0.8974571	angetuacha mimi
-0.8974571	angewapa mvua
-1.800547	apiyo akasema
-1.800547	apiyo aliwaelezea
-1.800547	apiyo nyumbani
-1.800547	apiyo walimkumbatia
-1.800547	apiyo walimsaidia
-1.800547	apiyo walipendwa
-1.800547	apiyo walitoka
-1.800547	apiyo waliwaambia
-0.8974571	asante kwa
-0.8974571	asije akaanguka
-1.198487	asubuhi hiyo
-1.198487	asubuhi iliyofuata
-0.8974571	atafungua yangu
-0.8974571	atoroke ili
-0.8974571	awaeleze alikokwenda
-0.6252086	baada ya
-1.374578	baadaye hapo
-1.374578	baadaye siku
-1.374578	baadaye walikunywa
-1.374578	baadhi ya
-0.5876952	baadhi yao
-1.596427	baba aliwaamsha
-1.596427	baba ya
-0.6112453	baba yao
-0.8974571	bado wanawaza
-0.8974571	bahati mbaya
-0.8974571	balagha yaliyonipitia
-1.198487	bali pia
-1.198487	bali wengine
-0.8974571	baraka kilikuwa
-0.8974571	baya kwa
-0.8974571	bei za
-2.198487	bibi </s>
-2.198487	bibi akipumzika
-2.198487	bibi aliishi
-1.411604	bibi alikuwa
-2.198487	bibi alimpatia
-2.198487	bibi alipotu
-2.198487	bibi aliwabariki
-2.198487	bibi aliwafunza
-2.198487	bibi aliwakaribisha
-2.198487	bibi bibi
-2.198487	bibi kijijini
-2.198487	bibi kuhesabu
-2.198487	bibi kwa
-2.198487	bibi kwenda
-2.198487	bibi odongo
-2.198487	bibi yangu
-1.213305	bibi yao
-0.8974571	bibiye malishoni
-1.198487	bidhaa odongo
-1.198487	bidhaa walizonunua
-0.8974571	bila kumuaga
-0.8974571	biryani nasahau
-0.8974571	boma lake
-1.198487	bora bali
-1.198487	bora zaidi
-0.8974571	budi kumfa
-0.8974571	bustani bibi
-1.675608	cha </s>
-1.675608	cha kuuzia
-1.675608	cha nyama
-1.675608	cha pili
-1.675608	cha robo
-1.675608	cha wavuvi
-1.198487	chai pamoja
-1.198487	chai walihesabu
-0.8974571	chako cha
-1.374578	chakula chochote
-1.374578	chakula lakini
-1.374578	chakula watakachokula
-0.8974571	chetu na
-1.596427	chini kujadiliana
-1.596427	chini nilijizuia
-0.6112453	chini ya	-0.0584851
-0.8974571	chochote ni
-0.8974571	chumba cha
-0.8974571	damu ni
-0.8974571	daraja la
-0.3893966	dawa ya	-0.1646484
-0.8974571	dhati ningewaambia
-0.8974571	dhiki nisingekuwa
-1.198487	dume aliyekuwa
-1.198487	dume wakaishi
-0.8974571	familia yetu
-1.742555	figo hasara
-1.742555	figo moja
-1.742555	figo ya
-0.7573733	figo yangu	-0.04014472
-1.742555	figo zake
-1.198487	fomu fulani
-1.198487	fomu yenyewe
-0.8974571	fremu nilitokwa
-0.8974571	fuawe </s>
-0.8974571	fulani tulizofaa
-0.8974571	fungua zawadi
-1.198487	furaha kwa
-1.198487	furaha wajukuu
-0.8974571	gari la
-0.8974571	gazeti kisha
-1.198487	ghafla sokwe
-1.198487	ghafla wazo
-0.8974571	ghamu ujumbe
-0.8974571	gharika kile
-0.8974571	ghaya ya
-0.8974571	giza lilipoanza
-0.8974571	gofu la
-1.198487	hadi ngombe
-1.198487	hadi upande
-0.8974571	hafi </s>
-0.8974571	hajifai kwa
-0.8974571	hakika damu
-0.8974571	hakufahamu kilichokuwa
-0.8974571	hakusonga roba
-0.8974571	hakuweza kuacha
-0.8974571	hali na
-0.8974571	halikadhalika kudhihirisha
-0.8974571	hamu na
-0.411604	hao walimwambia
-1.374578	hapa kijijini
-0.5876952	hapa mimi
-1.374578	hapo waliketi
-0.5876952	hapo zamani
-0.8974571	haraka alivyoweza
-0.8974571	hasara na
-1.499517	hata hivyo
-0.712634	hata na	-0.08669851
-1.499517	hata ubwabwa
-0.8974571	hatimaye </s>
-0.8974571	hatuna mwi
-0.8974571	haujanitoka shingoni
-0.8974571	hawafuniki wafunika
-0.8974571	hawakutaka kuondoka
-0.8974571	hawakuweza kuwaona
-0.8974571	hawangeweza kumuacha
-1.198487	haya </s>
-1.198487	haya ya
-1.198487	hayawi hatimaye
-1.198487	hayawi hayawi
-1.596427	hayo na
-1.596427	hayo nilikuwa
-1.596427	hayo ya
-1.596427	hayo yalikuwa
-1.596427	hayo yote
-0.411604	hebu twende	-0.04128216
-0.8974571	heri nilituhumu
-1.110574	hiki hebu	0.111607
-1.110574	hiki kweli	0.111607
-1.110574	hiki pia	-0.02819945
-1.897457	hiki taza
-1.897457	hiki tazama
-1.110574	hiki vile
-1.198487	hivi hata
-1.198487	hivi karibuni
-1.198487	hivyo alikubaliana
-1.198487	hivyo nilikumbuka
-1.675608	hiyo baadaye
-1.675608	hiyo ilitupata
-1.675608	hiyo mimi
-1.675608	hiyo ndiyo
-1.675608	hiyo odongo
-1.675608	hiyo tuliyaona
-0.8974571	hospitali ya
-0.8974571	hospitalini nilihisi
-0.8974571	huenda </s>
-0.8974571	huko tuliagizwa
-1.596427	huku akihema
-1.596427	huku akimtaja
-1.596427	huku akimwangalia
-1.596427	huku akitetemeka
-1.596427	huku kwetu
-0.8974571	humu twende
-1.499517	huo </s>
-1.499517	huo huo
-1.499517	huo ndio
-1.499517	huo walifunganya
-0.8974571	huru na
-0.8974571	hurum nilihisi
-0.8974571	huruma akitela
-0.8974571	hutaki kuondoka
-0.8974571	huwa zamu
-1.374578	huyo alipoachwa
-1.374578	huyo kama
-1.374578	huyo nitoroke
-0.3893966	huyu sasa	-0.001407042
-0.8974571	huzuni ya
-0.8974571	ijapokuwa tulikuwa
-0.8974571	ikanyesha tulikuwa
-0.8974571	ila mzaliwa
-1.675608	ile </s>
-0.8887252	ile mpaka	0.111607
-0.6904266	ile nyama
-1.198487	ili niukate
-1.198487	ili tuchote
-1.198487	ilikuwa muhali
-1.198487	ilikuwa na
-0.8974571	ilinyesha ikanyesha
-0.8974571	ilipokaribia kuisha
-0.8974571	ilisemekana kuwa
-0.8974571	ilitupata pambajioni
-0.8974571	iliwadia tuliingizwa
-1.198487	iliyofuata baba
-1.198487	iliyofuata waliondoka
-0.411604	ime </s>
-0.8974571	imekua sawa
-0.8974571	ingekuwa njia
-0.8974571	ipate kushika
-0.8974571	ishakwisha alafu
-0.8974571	ishirini mwili
-0.8974571	itakuwaje tukimwacha
-0.8974571	jamaa na
-0.8974571	jambo baya
-0.6252086	je yuko	0.00650873
-0.8974571	jeneza baada
-0.8974571	jicho ndugu
-0.8974571	jiko je
-1.374578	jinsi alivyoniuguza
-1.374578	jinsi ndugu
-1.374578	jinsi ya
-1.198487	jirani alitishia
-1.198487	jirani jirani
-0.8974571	jiwe na
-0.8974571	joo jooo
-0.8974571	jooo jooooo
-0.8974571	jooooo leah
-1.596427	juu karibu
-1.596427	juu kwa
-1.596427	juu mooo
-1.596427	juu ya
-1.596427	juu yake
-0.411604	kabati lulu	-0.002293169
-0.411604	kabla ya
-0.8974571	kakonda ghaya
-0.8974571	kale paliishi
-1.675608	kama huku
-0.8887252	kama kwamba
-1.675608	kama ni
-1.675608	kama wewe
-1.675608	kama zawadi
-1.198487	kando ya
-1.198487	kando yangu
-1.374578	karibu amuangushe
-0.5876952	karibu na
-0.8974571	karibuni wangepanda
-1.742555	katika biryani
-1.742555	katika chumba
-0.955672	katika kabati	0.111607
-0.7573733	katika kijiji
-1.198487	kavu alimwambia
-1.198487	kavu lomongin
-1.198487	kazi nyingi
-1.198487	kazi za
-0.8974571	kelele joo
-0.8974571	kibanda cha
-0.8974571	kicheko na
-0.8974571	kidogo wanafinika
-0.8974571	kidole mintaarafu
-0.8974571	kifo yalikuwa
-0.8974571	kiini sasa
-1.596427	kijiji </s>
-1.596427	kijiji cha
-1.596427	kijiji chetu
-1.596427	kijiji kimoja
-1.596427	kijiji kipya
-1.110574	kijijini </s>
-1.897457	kijijini asubuhi
-1.897457	kijijini humu
-1.897457	kijijini mwao
-1.897457	kijijini ni
-1.897457	kijijini pamoja
-1.897457	kijijini safarini
-1.897457	kijijini tena
-1.897457	kijijini usiku
-0.8974571	kikiendelea huku
-1.499517	kila la
-1.499517	kila mahali
-1.499517	kila nilipomtaza
-1.499517	kila wakati
-1.499517	kile kilikuwa
-1.499517	kile kitunguu
-1.499517	kile kuwa
-1.499517	kile mbuni
-0.8974571	kilichokuwa kikiendelea
-0.8974571	kilichotendeka baadaye
-1.198487	kilikuwa baraka
-1.198487	kilikuwa sasa
-1.198487	kilo </s>
-1.198487	kilo moja
-0.8974571	kimoja kulikuwa
-1.198487	kimya bila
-1.198487	kimya kimya
-0.8974571	kipofu akitela
-0.8974571	kipya walimshambulia
-1.374578	kisha akamtupa
-1.374578	kisha mimi
-1.374578	kisha wakaweka
-0.8974571	kisima walimwona
-0.8974571	kisu ili
-0.8974571	kitoweo cha
-1.675608	kitunguu </s>
-1.675608	kitunguu chako
-0.8887252	kitunguu maji
-1.675608	kitunguu pamoja
-1.675608	kitunguu thomo
-0.8974571	kiwe nilikua
-0.8974571	kofia naye
-0.411604	kondoo dume
-1.198487	koroga </s>
-1.198487	koroga koroga
-0.8974571	kuacha kucheka
-0.8974571	kuanza kusakurasakura
-0.8974571	kubwa odongo
-0.8974571	kucha walio
-1.198487	kucheka alikimbia
-1.198487	kucheka ngombe
-0.411604	kucheza na
-0.8974571	kuchezea ziwani
-0.411604	kuchota maji
-0.8974571	kuchuna mboga
-0.8974571	kudhihirisha mapenzi
-0.8974571	kuelekea kijijini
-0.8974571	kuenda leah
-0.8974571	kufaana wala
-0.8974571	kufanana ijapokuwa
-0.8974571	kufanya kazi
-0.8974571	kufanyiwa upasuaji
-0.8974571	kufungwa bali
-0.8974571	kuhesabu pesa
-1.374578	kuhusu kile
-1.374578	kuhusu maisha
-1.374578	kuhusu ufadhili
-0.8974571	kuil kwa
-0.8974571	kuila mimea
-0.8974571	kuimb kuimba
-1.374578	kuimba kwa
-1.374578	kuimba nyimbo
-1.374578	kuimba wimbo
-0.8974571	kuingia walirejea
-0.8974571	kuishi kwa
-0.8974571	kujadiliana vile
-0.8974571	kuketi hapa
-0.8974571	kukila siku
-0.8974571	kukonda </s>
-1.198487	kulia bibi
-1.198487	kulia upande
-1.198487	kuliko maji
-1.198487	kuliko na
-0.411604	kulikuwa na
-0.8974571	kulingana </s>
-0.8974571	kumaliza kukila
-0.8974571	kumfa ndugu
-0.8974571	kumgonga ngombe
-1.374578	kumpa </s>
-1.374578	kumpa ndugu
-1.374578	kumpa zawadi
-0.8974571	kumpata katika
-0.3893966	kumtembelea bibi
-0.411604	kumuacha mama
-1.198487	kumuaga odongo
-1.198487	kumuaga yule
-0.8974571	kumuiga ngombe
-0.8974571	kumzika tulianza
-0.3893966	kuna wengine
-0.8974571	kuni na
-0.8974571	kuomba vingine
-1.198487	kuondoka hapa
-1.198487	kuondoka walimsihi
-0.8974571	kupanga watakavyotoroka
-1.198487	kupika ugali
-1.198487	kupika wali
-0.8974571	kupimwa kwa
-0.8974571	kupumzika odongo
-0.8974571	kurejea nyumbani
-0.411604	kurudi mjini
-0.8974571	kusaidia la
-0.8974571	kusakurasakura mitandaoni
-0.8974571	kusali lazima
-0.8974571	kusema nina
-0.8974571	kushika ile
-0.8974571	kusitokee tena
-0.8974571	kutiwa ndani
-1.198487	kutoka kwenye
-1.198487	kutoka mjini
-0.8974571	kutujulia </s>
-0.8974571	kutuona kwa
-0.8974571	kututakia kila
-0.8974571	kuu wake
-0.8974571	kuudhihirisha udugu
-0.8974571	kuunganisha kijiji
-0.8974571	kuuzia mboga
-0.8974571	kuvaa mavazi
-0.8974571	kuvuma mamba
-1.976638	kuwa </s>
-1.976638	kuwa hawangeweza
-1.976638	kuwa huenda
-1.976638	kuwa kila
-1.976638	kuwa kile
-1.976638	kuwa maisha
-1.976638	kuwa mla
-1.976638	kuwa naenda
-1.976638	kuwa pengine
-1.976638	kuwa punda
-1.976638	kuwa udugu
-1.976638	kuwa wangemtafuta
-0.8974571	kuwafu </s>
-0.8974571	kuwaona vipepeo
-0.8974571	kuzifungua zawadi
-0.8974571	kuzisoma fomu
-2.488522	kwa </s>
-2.488522	kwa bahati
-2.488522	kwa bibi
-1.701639	kwa furaha
-2.488522	kwa hakika
-2.488522	kwa hamu
-2.488522	kwa huru
-2.488522	kwa hurum
-2.488522	kwa huzuni
-2.488522	kwa kama
-2.488522	kwa kitoweo
-2.488522	kwa kucheza
-2.488522	kwa kuil
-2.488522	kwa kuila
-1.50334	kwa mara
-2.488522	kwa mateke
-2.488522	kwa maumivu
-2.488522	kwa mchuzi
-2.488522	kwa miezi
-2.488522	kwa mtu
-2.488522	kwa mwingine
-2.488522	kwa pembe
-2.488522	kwa sababu
-2.488522	kwa safari
-1.701639	kwa sauti
-2.488522	kwa shule
-2.488522	kwa siku
-2.488522	kwa simu
-2.488522	kwa stethoskopu
-2.488522	kwa uchungu
-2.488522	kwa upande
-2.488522	kwa uwa
-2.488522	kwa wazazi
-2.488522	kwa woga
-2.488522	kwa zaidi
-0.8974571	kwake kwa
-1.675608	kwamba bibi
-1.675608	kwamba leah
-1.675608	kwamba mavazi
-1.675608	kwamba mimi
-1.675608	kwamba mu
-1.675608	kwamba odongo
-0.8974571	kwangu </s>
-0.8974571	kwani walikuwa
-1.596427	kwanza apiyo
-1.596427	kwanza kuenda
-1.596427	kwanza maji
-1.596427	kwanza nibebe
-1.596427	kwanza odongo
-0.411604	kweli ni	-0.0783198
-1.675608	kwenda kijijini
-1.675608	kwenda mjini
-1.675608	kwenda nao
-0.6904266	kwenda umefika	0.0649502
-0.411604	kwendaaa ni	-0.0783198
-1.675608	kwenye bustani
-1.675608	kwenye cha
-1.675608	kwenye fuawe
-1.675608	kwenye gari
-1.675608	kwenye mkeka
-1.675608	kwenye ngamia
-1.198487	kwetu tulikuwa
-1.198487	kwetu wafunika
-1.742555	la atafungua
-1.742555	la baba
-1.742555	la heri
-1.742555	la kuunganisha
-1.742555	la lulu
-1.742555	la mtu
-1.742555	la sivyo
-0.8974571	lake walio
-1.8517	lakini </s>
-1.8517	lakini alitabasamu
-1.8517	lakini ngombe
-0.459869	lakini ninapenda	0.2336824
-1.8517	lakini walilala
-1.8517	lakini wote
-1.675608	lazima kiwe
-1.675608	lazima kusitokee
-1.675608	lazima na
-0.8887252	lazima twende	-0.04128216
-1.675608	lazima uoshe
-1.8517	leah aliangua
-1.8517	leah alikubali
-1.8517	leah alikuwa
-1.8517	leah alimfuata
-1.8517	leah alimjibu
-1.8517	leah alipoacha
-1.8517	leah alishtuka
-1.8517	leah unaweza
-1.8517	leah walikuwa
-0.8974571	lijalo nilikata
-0.8974571	lije lijalo
-0.8974571	likanijia akilini
-1.374578	likizo ilipokaribia
-1.374578	likizo na
-1.374578	likizo si
-1.198487	lilikuwa kavu
-1.198487	lilikuwa kutiwa
-0.8974571	lililobaki lilikuwa
-0.8974571	lilipoanza kuingia
-0.8974571	lilisombwa na
-0.8974571	liwalo lije
-0.8974571	liwe liwalo
-2.043585	lodipo akamwambia
-2.043585	lodipo aliishi
-2.043585	lodipo alikuwa
-2.043585	lodipo alim
-2.043585	lodipo alipo
-2.043585	lodipo lodipo
-2.043585	lodipo majambazi
-0.6517545	lodipo na	-0.04204062
-2.043585	lodipo punde
-2.043585	lodipo tuondoke
-2.043585	lodipo wamuadhibu
-0.8974571	lomongin mbuni
-0.6904266	lulu wakati	-0.09423736
-0.6904266	lulu yuko	-0.1026881
-1.198487	maadamu figo
-1.198487	maadamu kila
-1.198487	maanake chakula
-1.198487	maanake ipate
-0.8974571	maandishi </s>
-0.8974571	maarufu alizungumza
-1.198487	machozi kwa
-1.198487	machozi yalinidondoka
-1.198487	madaktari hiyo
-1.198487	madaktari waitoe
-0.8974571	magari yaliyopita
-0.8974571	mahali daraja
-1.374578	maisha kijijini
-0.5876952	maisha ya
-1.374578	majambazi hao
-1.374578	majambazi walimtafuta
-1.374578	majambazi wasimdhuru
-0.8974571	majani chai
-1.189755	maji </s>
-1.976638	maji alipokuwa
-1.976638	maji leah
-0.9914566	maji na	-0.06128787
-1.976638	maji ndio
-1.976638	maji nyumbani
-1.976638	maji wakakusanya
-1.976638	maji walipokaribia
-1.976638	maji yalizidi
-0.8974571	majirani siku
-0.8974571	makaa ndio
-0.8974571	malishoni kwa
-2.073548	mama alikuwa
-2.073548	mama alipiga
-1.088367	mama anaita	0.0649502
-1.10233	mama anasema	0.08209551
-2.073548	mama mama
-2.073548	mama mkwe
-2.073548	mama ngombe
-2.073548	mama yake
-2.073548	mama yangu
-0.712634	mamake lodipo
-0.712634	mamake roba
-1.742555	mamba aharakishe
-1.742555	mamba akainuliwa
-1.742555	mamba akakasirika
-1.742555	mamba akambeba
-1.742555	mamba akamjibu
-1.742555	mamba akasema
-1.742555	mamba kando
-0.8974571	manufaa yake
-0.8974571	mapema kwenye
-0.8974571	mapenzi ya
-1.499517	mara kwa
-1.499517	mara lodipo
-1.499517	mara nyingine
-1.499517	mara ya
-0.8974571	maradhi hayo
-1.198487	marafiki walitujia
-1.198487	marafiki zao
-0.8974571	mashamba ya
-0.8974571	mashariki nilijua
-0.8974571	maswali ya
-0.8974571	mateke liwe
-0.8974571	matumaini aliwahakikishia
-1.198487	maumivu nilimhurumia
-1.198487	maumivu tafadhali
-0.8974571	mauti kwetu
-1.198487	mavazi hayo
-1.198487	mavazi rasmi
-1.374578	mawingu meupe
-1.374578	mawingu ni
-1.374578	mawingu ya
-0.8974571	mayai na
-0.8974571	maziwa na
-0.8974571	mbali mashariki
-0.8974571	mbaya waliingia
-1.198487	mboga kutoka
-1.198487	mboga sukari
-0.8974571	mbona niyapitie
-0.411604	mbuni mvua
-0.8974571	mchanga hivi
-1.374578	mchele unakata
-1.374578	mchele unatia
-1.374578	mchele yako
-0.8974571	mchuzi wa
-0.8974571	mengi yalikuwa
-0.8974571	mengine mengi
-0.8974571	meupe mbali
-0.8974571	meusi njooni
-1.198487	mgongoni roba
-1.198487	mgongoni wakavuka
-0.8974571	mhanga kumpa
-0.8974571	mhunzi kwenye
-1.374578	miaka ishirini
-1.374578	miaka thelathini
-1.374578	miaka umri
-0.8974571	miezi mingi
-0.8974571	mifugo walivamia
-0.8974571	mifuko yao
-0.8974571	milima wanyama
-0.8974571	milizamu ya
-1.198487	mimea yake
-1.198487	mimea yao
-1.675608	mimi huyo
-0.8887252	mimi na
-1.675608	mimi ndimi
-1.675608	mimi nitachota
-1.675608	mimi nitarudi
-0.8974571	mingi angaa
-0.8974571	mintaarafu na
-0.8974571	mitandaoni kuhusu
-0.8974571	mitano moyo
-0.411604	mithili ya
-0.8974571	miungu watu
-0.8974571	mizigo yao
-0.8974571	mje hapa
-1.800547	mjini aliwaacha
-1.800547	mjini bibi
-1.800547	mjini fungua
-1.800547	mjini kila
-1.800547	mjini lakini
-1.800547	mjini ni
-1.800547	mjini nitawasubiri
-1.800547	mjini walipanda
-0.8974571	mkali ukaanza
-0.8974571	mkeka chini
-0.8974571	mkewe wa
-0.8974571	mkono nisingependa
-0.8974571	mkubwa mamba
-0.8974571	mkwe aliwaza
-0.8974571	mla nawe
-1.8517	moja akila
-1.8517	moja halikadhalika
-1.8517	moja kisha
-1.8517	moja kuishi
-1.8517	moja kulingana
-1.8517	moja mamake
-1.8517	moja subuhi
-1.8517	moja walienda
-1.8517	moja ya
-0.712634	mooo mooo	-0.007805404
-0.712634	mooo moooooo
-1.198487	moooooo aliendelea
-1.198487	moooooo leah
-1.596427	moyo hayawi
-1.596427	moyo pakubwa
-1.596427	moyo ulikuwa
-1.596427	moyo wako
-1.596427	moyo wangu
-0.411604	mpaka unaiona	0.111607
-0.8974571	mrembo na
-0.8974571	msalie mtume
-0.8974571	msemo kuwa
-1.374578	mti bibi
-1.374578	mti hakufahamu
-1.374578	mti mamba
-0.8974571	mtini na
-1.374578	mto mamba
-1.374578	mto mkubwa
-1.374578	mto sokwe
-1.198487	mtu alikuwa
-1.198487	mtu mwenye
-0.8974571	mtume mbona
-0.8974571	mu </s>
-0.8974571	muda walilala
-0.8974571	muhali kwa
-0.8974571	muhimu kwenye
-1.742555	mvua alisema
-1.742555	mvua baadaye
-1.742555	mvua hivi
-1.742555	mvua ilinyesha
-1.742555	mvua kwa
-1.742555	mvua maarufu
-1.742555	mvua watu
-0.8974571	mvulana aliyeitwa
-0.8974571	mwa jirani
-0.8974571	mwanamke mrembo
-0.8974571	mwanawe majambazi
-0.8974571	mwangalifu zaidi
-0.8974571	mwanzo tulifurahi
-0.8974571	mwao kulikuwa
-1.198487	mwenye figo
-1.198487	mwenye nguvu
-0.8974571	mwi </s>
-0.8974571	mwili wangu
-0.8974571	mwingi </s>
-1.374578	mwingine </s>
-1.374578	mwingine nilimtupia
-1.374578	mwingine wa
-0.8974571	mwisho msalie
-0.8974571	mwororo waliou
-0.8974571	mzaliwa nawe
-0.8974571	mzee aliyeitwa
-0.8974571	mzima uliota
-2.870585	na akila
-2.870585	na akitela
-2.870585	na amani
-1.194977	na apiyo
-2.870585	na baba
-2.083702	na bibi
-2.870585	na budi
-1.885403	na dawa	0.05284473
-2.870585	na gazeti
-2.870585	na ghamu
-2.870585	na gharika
-2.870585	na hakuweza
-2.083702	na hayo
-1.478754	na hiki	-0.01268802
-2.870585	na huruma
-2.083702	na ile	-0.04128216
-2.870585	na jiko
-2.870585	na jiwe
-2.870585	na kibanda
-2.870585	na kidole
-2.870585	na kile
-2.870585	na kuanza
-2.870585	na kuchezea
-2.870585	na kuchota
-2.870585	na kuchuna
-2.870585	na kuimb
-2.083702	na kuimba
-2.870585	na kumpa
-2.870585	na kumpata
-2.870585	na kumtembelea
-2.870585	na kumuaga
-2.870585	na kuna
-2.870585	na kuomba
-2.870585	na kupanga
-2.870585	na kurudi
-2.870585	na kusema
-2.870585	na kututakia
-2.870585	na lodipo
-2.870585	na maandishi
-2.870585	na maji
-2.870585	na makaa
-2.870585	na manufaa
-2.870585	na marafiki
-2.870585	na mashamba
-2.870585	na mengine
-2.870585	na milizamu
-2.870585	na mitano
-2.870585	na miungu
-2.870585	na mvulana
-2.870585	na mwenye
-2.870585	na nazi
-2.083702	na ndege
-2.870585	na ndugu
-2.083702	na nini	-0.02819945
-1.478754	na opiyo
-2.870585	na pilau
-2.870585	na ripoti
-2.870585	na sabuni
-2.083702	na saumu
-2.870585	na sehemu
-2.870585	na sori
-2.870585	na tanga
-2.870585	na tui
-2.870585	na uvamizi
-2.870585	na vipepeo
-2.870585	na wa
-1.885403	na wakeze	0.05284473
-2.870585	na wamuache
-2.870585	na yeye
-2.870585	na yule
-2.870585	na zawadi
-2.870585	na ziwa
-0.8974571	naenda pembeni
-0.8974571	nakwambia pendo
-0.8974571	namna ya
-0.8974571	nao mjini
-0.8974571	nasahau thomo
-1.374578	nawe hafi
-1.374578	nawe huo
-1.374578	nawe ila
-1.596427	naye ajuza
-1.596427	naye aliwapikia
-1.596427	naye na
-1.596427	naye opiyo
-1.596427	naye roba
-1.198487	nazi wa
-1.198487	nazi walioula
-0.8974571	nchi kavu
-1.198487	ndani </s>
-1.198487	ndani ya
-0.8974571	ndefu ya
-1.198487	ndege hawakuweza
-1.198487	ndege wengi
-0.8974571	ndimi nilikuwa
-1.374578	ndio muhimu
-1.374578	ndio ulikuwa
-1.374578	ndio utasikia
-1.499517	ndiye </s>
-0.5143353	ndiye huyu	0.05284473
-0.8974571	ndiyo ingekuwa
-0.411604	ndoo ya
-1.742555	ndugu jamaa
-1.742555	ndugu wa
-0.7713366	ndugu yangu
-0.8974571	ngamia wao
-0.8974571	ngea juu
-0.8974571	ngia ngombe
-1.897457	ngombe akawatazama
-1.897457	ngombe akiwa
-1.110574	ngombe alisema
-1.897457	ngombe alisimama
-1.897457	ngombe amemchukua
-1.897457	ngombe kwake
-1.897457	ngombe lakini
-1.897457	ngombe wa
-1.897457	ngombe yule
-0.8974571	nguvu bibi
-2.073548	ni </s>
-1.286665	ni bora
-1.286665	ni hiki	-0.06632149
-2.073548	ni kilo
-2.073548	ni kitunguu
-2.073548	ni kufaana
-1.286665	ni lazima	-0.04128216
-2.073548	ni mauti
-2.073548	ni mawingu
-2.073548	ni meusi
-2.073548	ni nini
-2.073548	ni nzito
-0.8974571	nibebe hadi
-0.8974571	nife </s>
-0.8974571	nijifanye kuwa
-0.8974571	nikiugua ama
-0.8974571	nikiwa mchanga
-0.411604	nilihisi kama	-0.04128216
-0.8974571	nilihofia kuwa
-0.8974571	nilihuzunika sana
-0.8974571	nilijizuia nisimtazame
-0.8974571	nilijua ni
-0.8974571	nilikata shauri
-0.8974571	nilikua nimesahau
-1.374578	nilikumbuka jinsi
-1.374578	nilikumbuka kuwa
-1.374578	nilikumbuka msemo
-1.198487	nilikuwa nikiugua
-1.198487	nilikuwa nimejitolea
-0.8974571	nilimhurumia sana
-0.8974571	nilimshikilia asije
-0.8974571	nilimtupia jicho
-0.8974571	nilipe asante
-0.8974571	nilipokuwa nimeumia
-0.8974571	nilipomtaza machozi
-0.8974571	nilitanabahi jinsi
-0.8974571	nilitoa simu
-0.8974571	nilitokwa na
-0.8974571	nilituhumu kuwa
-0.8974571	niliyoyaona yaliniatua
-0.8974571	nimejitolea mhanga
-0.8974571	nimesahau thomo
-0.8974571	nimeumia mkono
-1.198487	nina kazi
-1.198487	nina maumivu
-0.8974571	ninahitaji kisu
-0.8974571	ninaogopa roba
-0.1076865	ninapenda hiki	-0.02819945
-0.8974571	ningempa figo
-0.8974571	ningewaambia madaktari
-1.596427	nini kilichotendeka
-1.596427	nini mamba
-0.809544	nini na	-0.0956741
-1.596427	nini nife
-0.8974571	nirudi kwa
-0.8974571	nisaidie sokwe
-0.8974571	nisimtazame maadamu
-0.8974571	nisingefikisha umri
-0.8974571	nisingekuwa rafiki
-0.8974571	nisingemfaa wakati
-0.8974571	nisingependa kuwa
-0.8974571	nitachota maji
-0.8974571	nitajificha nirudi
-0.8974571	nitarudi kwa
-0.8974571	nitawasubiri mje
-0.8974571	nitoke tulipendana
-0.8974571	nitoroke hata
-0.8974571	niukate moyo
-0.8974571	niyapitie haya
-1.374578	nje tulipokuwa
-1.374578	nje walifurahia
-1.374578	nje ya
-0.8974571	njia ya
-0.8974571	njooni ndani
-1.800547	nyama ile
-1.013664	nyama ime	0.111607
-1.800547	nyama maanake
-1.800547	nyama pia
-1.800547	nyama unakaangia
-1.013664	nyama yako	-0.02819945
-0.8974571	nyimbo walizofunzwa
-1.198487	nyingi mwanzo
-1.198487	nyingi shambani
-1.198487	nyingine lilisombwa
-1.198487	nyingine usiku
-0.8974571	nyuma ya
-0.8974571	nyumba zilisombwa
-1.675608	nyumbani alilia
-1.675608	nyumbani bibi
-1.675608	nyumbani kwa
-1.675608	nyumbani walimsaidia
-1.675608	nyumbani walitafuta
-1.675608	nyumbani zili
-0.8974571	nyundo ya
-0.8974571	nzito kuliko
-2.043585	odongo alikuwa
-2.043585	odongo alimsihi
-2.043585	odongo aliwapeleka
-2.043585	odongo kofia
-0.1918855	odongo na	-0.732524
-2.043585	odongo naye
-1.596427	opiyo akampatia
-1.596427	opiyo na
-1.596427	opiyo walienda
-1.596427	opiyo walifurahi
-1.596427	opiyo waliishi
-0.8974571	pa hospitali
-0.8974571	pakubwa ilisemekana
-1.198487	pale sasa
-1.198487	pale unakoroga
-0.8974571	paliishi mzee
-0.8974571	pambajioni pa
-1.499517	pamoja likizo
-0.5143353	pamoja na
-0.8974571	pazia lulu
-0.411604	peke yake
-1.198487	pekee ndiye
-1.198487	pekee ya
-0.8974571	pembe moja
-0.8974571	pembeni kisha
-0.8974571	penda sana
-0.411604	pendo alikuwa
-0.8974571	pengine baadhi
-0.8974571	pesa alizopata
-0.8974571	pete na
-1.596427	pia aliwaambia
-1.596427	pia aliwaonyesha
-1.596427	pia kumtembelea
-0.809544	pia na	-0.08669851
-1.596427	pilau </s>
-1.596427	pilau haya
-0.809544	pilau unachemsha	0.111607
-1.596427	pilau vile
-1.499517	pili akitela
-1.499517	pili huko
-1.499517	pili ngombe
-1.499517	pili wa
-0.8974571	polepole walijaribu
-0.8974571	pori na
-0.8974571	punda nilipe
-0.8974571	punde lodipo
-1.198487	rafiki shakiki
-1.198487	rafiki ya
-0.8974571	raha ya
-0.8974571	rasmi ya
-0.8974571	ripoti ya
-2.043585	roba akifagia
-2.043585	roba aliangusha
-2.043585	roba alianza
-2.043585	roba aligundua
-2.043585	roba alijaza
-1.256702	roba alikuwa
-2.043585	roba alipiga
-1.256702	roba alisema
-2.043585	roba juu
-2.043585	roba mamake
-2.043585	roba ninaogopa
-2.043585	roba roba
-0.8974571	robo kilo
-0.8974571	sababu ya
-0.8974571	sabuni apiyo
-0.8974571	safari ndefu
-1.198487	safarini baba
-1.198487	safarini waliiona
-0.8974571	samaki siku
-1.800547	sana aidha
-1.800547	sana akila
-1.800547	sana maradhi
-1.800547	sana nilihuzunika
-1.800547	sana nilimshikilia
-1.013664	sana sana
-1.800547	sana sote
-0.8974571	sanda lililobaki
-1.8517	sasa imekua
-1.064816	sasa lakini	0.08361583
-0.8665178	sasa mama	-0.0291403
-1.8517	sasa mawingu
-1.8517	sasa ndiye
-1.8517	sasa ni
-1.198487	saumu lazima
-1.198487	saumu yako
-1.198487	sauti pale
-1.198487	sauti ya
-0.8974571	sawa wafunika
-0.8974571	sehemu nyingine
-0.8974571	shakiki vilevile
-1.198487	shambani mwa
-1.198487	shambani siwezi
-0.8974571	shauri kumpa
-0.8974571	shingoni hayo
-0.8974571	shule kufungwa
-0.8974571	shuleni baada
-1.198487	si </s>
-1.198487	si kufanana
-0.5470192	siku hiyo
-1.93885	siku iliyofuata
-0.5470192	siku moja
-1.93885	siku nyingi
-1.93885	siku ya
-0.8974571	sikuwa na
-1.198487	simu </s>
-1.198487	simu alisikia
-0.411604	sitaki kwendaaa	0.111607
-0.8974571	sitapona sokwe
-0.8974571	sivyo angetuacha
-0.8974571	siwezi kwenda
-0.8974571	sofa je
-0.8974571	soko odongo
-1.800547	sokwe akamwuliza
-1.013664	sokwe akasema
-1.800547	sokwe akaurukia
-1.800547	sokwe alimkuta
-1.800547	sokwe alipoi
-1.800547	sokwe mgongoni
-1.800547	sokwe sokwe
-0.8974571	sori katika
-0.8974571	sote tulianza
-0.8974571	stethoskopu tulipatiwa
-0.8974571	subuhi odongo
-0.8974571	sukari na
-0.8974571	sweta kwa
-0.8974571	tafadhali nisaidie
-0.8974571	tanga tu
-0.8974571	tasa juu
-0.8974571	tayari kwa
-0.8974571	taza </s>
-0.8974571	tazama unareje
-1.198487	tena jambo
-1.198487	tena odongo
-0.8974571	thelathini na
-1.374578	thomo </s>
-1.374578	thomo kitunguu
-1.374578	thomo lazima
-0.8974571	toka nitoke
-1.374578	tu baadhi
-1.374578	tu kidogo
-1.374578	tu kwa
-0.8974571	tuchote maji
-0.8974571	tui sikuwa
-0.8974571	tukimwacha peke
-0.8974571	tukingoja mvua
-0.8974571	tukiwa tungali
-0.8974571	tuliagizwa kuvaa
-1.198487	tulianza kulia
-1.198487	tulianza kusali
-0.8974571	tulifurahi maji
-0.8974571	tuliingizwa katika
-1.499517	tulikuwa maziwa
-1.499517	tulikuwa ndugu
-1.499517	tulikuwa tumeingoja
-1.499517	tulikuwa tumejitayarisha
-0.8974571	tulipatiwa fomu
-0.8974571	tulipendana </s>
-1.198487	tulipokuwa hatuna
-1.198487	tulipokuwa tukingoja
-0.8974571	tuliratibiwa kufanyiwa
-0.8974571	tuliyaona mawingu
-0.8974571	tulizofaa kuzisoma
-0.8974571	tumeingoja mvua
-0.8974571	tumejitayarisha </s>
-0.8974571	tumeketi nilitoa
-0.8974571	tumpige atoroke
-0.8974571	tungali tumeketi
-0.8974571	tuondoke kijijini
-1.675608	twende kuliko
-0.8887252	twende mama	-0.0656215
-0.8887252	twende sasa	-0.06224724
-1.675608	twende tumpige
-0.8974571	ubwabwa haujanitoka
-0.8974571	uchovu walipofika
-0.8974571	uchungu mwingi
-1.198487	udugu ni
-1.198487	udugu wangu
-0.8974571	ufadhili wa
-0.8974571	ufagio akakimbia
-0.8974571	ugali mwororo
-0.8974571	uguzwe kando
-0.8974571	ujumbe wa
-0.8974571	ukaanza kuvuma
-0.8974571	ukipigapiga mithili
-0.411604	uko wapi	-0.02819945
-1.374578	ulikuwa ukipigapiga
-1.374578	ulikuwa wakati
-1.374578	ulikuwa wasaa
-0.8974571	ulinidanganya utajuta
-0.8974571	uliota vimbimbi
-0.8974571	umba angewapa
-1.374578	umefika mama
-0.5876952	umefika uko	0.111607
-0.411604	umri wa	-0.08821956
-0.411604	unachemsha nyama	-0.05710008
-0.8974571	unachukua mchele
-0.8974571	unadhani ni
-0.8974571	unahitaji nini
-0.411604	unaiona nyama	-0.05710008
-0.8974571	unaitia ile
-1.499517	unakaanga alafu
-1.499517	unakaanga maanake
-1.499517	unakaanga unaitia
-1.499517	unakaanga unakaanga
-0.8974571	unakaangia na
-0.411604	unakata kitunguu
-0.8974571	unakoroga koroga
-0.8974571	unareje je
-0.8974571	unarejesha vitabu
-0.8974571	unatia pale
-0.8974571	unaweza kuketi
-0.8974571	uoshe mchele
-1.499517	upande mwingine
-0.5143353	upande wa
-0.8974571	upasuaji maadamu
-0.8974571	upepo mkali
-1.374578	usiku huo
-1.374578	usiku kucha
-1.374578	usiku usiku
-0.8974571	usiponipatia moyo
-0.8974571	utajuta odongo
-0.8974571	utasikia raha
-0.8974571	uvamizi wa
-0.8974571	uwa naye
-1.742555	vile </s>
-0.955672	vile hata	-0.007805404
-1.742555	vile unakata
-0.955672	vile vile
-1.742555	vile wangecheza
-0.8974571	vilevile </s>
-0.8974571	vimbimbi kwa
-0.8974571	vingine zaidi
-0.411604	vipepeo na	-0.09776906
-0.8974571	vitabu na
-2.31243	wa bibiye
-2.31243	wa dhiki
-2.31243	wa familia
-2.31243	wa figo
-2.31243	wa kulia
-2.31243	wa kumtembelea
-2.31243	wa kuudhihirisha
-2.31243	wa kwanza
-1.327249	wa kwenda	-0.07572208
-2.31243	wa mara
-2.31243	wa matumaini
-1.525547	wa miaka
-2.31243	wa mifugo
-2.31243	wa moyo
-2.31243	wa mto
-2.31243	wa na
-2.31243	wa nazi
-2.31243	wa pilau
-1.525547	wa pili
-2.31243	wa pori
-2.31243	wa samaki
-2.31243	wa toka
-1.499517	wafunika </s>
-1.499517	wafunika kuna
-0.712634	wafunika na
-0.8974571	waitoe figo
-0.411604	wajukuu wake
-0.8974571	wakaishi kwa
-0.8974571	wakakusanya mayai
-0.8974571	wakaondoka kimya
-1.742555	wakati huo
-0.7713366	wakati wa	-0.07532178
-1.742555	wakati waliitazamia
-0.8974571	wakavuka mto
-0.8974571	wakaweka tasa
-1.499517	wake baada
-1.499517	wake jinsi
-1.499517	wake walifurahi
-1.499517	wake wote
-0.3893966	wakeze wawili
-0.8974571	wako sitapona
-0.8974571	wala si
-1.198487	wali na
-1.198487	wali wa
-1.198487	waliamini kuwa
-1.198487	waliamini maisha
-0.8974571	walicheza nje
-1.198487	walienda kuchota
-1.198487	walienda pamoja
-0.8974571	walifunganya mifuko
-1.198487	walifurahi kwani
-1.198487	walifurahi na
-0.8974571	walifurahia kucheza
-0.8974571	walihesabu magari
-0.8974571	waliingia shambani
-0.8974571	waliiona milima
-0.8974571	waliishi na
-0.8974571	waliitazamia likizo
-0.8974571	walijaribu kumgonga
-0.8974571	waliketi chini
-0.8974571	walikubali kwamba
-0.8974571	walikuja kutuona
-0.8974571	walikunywa chai
-1.198487	walikusanyika kumzika
-1.198487	walikusanyika nje
-1.374578	walikuwa bado
-1.374578	walikuwa majirani
-1.374578	walikuwa ulikuwa
-1.198487	walilala kabla
-1.198487	walilala kwa
-0.8974571	walilazimika kurudi
-0.8974571	walimkumbatia na
-0.8974571	walimkuta bibi
-0.411604	walimsaidia bibi
-0.8974571	walimshambulia lodipo
-0.8974571	walimsihi bibi
-0.8974571	walimtafuta lodipo
-1.198487	walimwambia ajuza
-1.198487	walimwambia kuwa
-0.8974571	walimwona </s>
-0.8974571	walingoja kwa
-1.198487	walio </s>
-1.198487	walio walingoja
-0.8974571	waliondoka mapema
-0.8974571	waliou walioula
-0.411604	walioula kwa
-0.8974571	walipakia mizigo
-0.8974571	walipanda mtini
-0.8974571	walipendwa na
-0.8974571	walipofika kijijini
-0.8974571	walipokaribia kisima
-0.8974571	walipoondoka wezi
-0.8974571	walirejea nyumbani
-0.8974571	walitafuta kuni
-0.8974571	walitoka nje
-0.8974571	walitujia kutujulia
-0.8974571	walivamia kijiji
-0.8974571	waliwaambia marafiki
-0.8974571	walizofunzwa shuleni
-0.8974571	walizomletea kutoka
-0.8974571	walizompelekea baada
-0.8974571	walizonunua </s>
-0.8974571	wamrudishie kondoo
-0.8974571	wamsi wamrudishie
-0.8974571	wamuache ajuza
-0.8974571	wamuadhibu ajuza
-0.8974571	wanafinika lakini
-0.8974571	wanawaza kuhusu
-0.8974571	wangecheza naye
-0.8974571	wangemtafuta lodipo
-0.8974571	wangepanda mimea
-1.596427	wangu akila
-1.596427	wangu mzima
-1.596427	wangu nisingemfaa
-1.596427	wangu wa
-1.596427	wangu wakati
-0.8974571	wanyama wa
-0.8974571	wao wawili
-0.8974571	waondoke na
-1.596427	wapi </s>
-1.596427	wapi je
-0.809544	wapi mama	-0.06440248
-1.596427	wapi sasa
-0.8974571	wasaa wangu
-0.8974571	wasimdhuru akitela
-0.8974571	watakachokula safarini
-0.8974571	watakavyotoroka akitela
-1.198487	wateja bei
-1.198487	wateja bidhaa
-1.374578	watoto wake
-1.374578	watoto walicheza
-1.374578	watoto walilazimika
-1.374578	watu kwamba
-1.374578	watu walikusanyika
-1.374578	watu walikuwa
-0.8974571	wavuvi karibu
-1.499517	wawili </s>
-1.499517	wawili akila
-1.499517	wawili walipakia
-1.499517	wawili walipoondoka
-0.8974571	wazazi wangu
-0.8974571	wazo likanijia
-0.8974571	wengi mjini
-1.499517	wengine hawafuniki
-1.499517	wengine kama
-1.499517	wengine wafunika
-1.499517	wengine waliamini
-1.374578	wewe hutaki
-0.5876952	wewe ndiye	0.05724997
-0.8974571	wezi wa
-0.8974571	wimbo huku
-0.8974571	woga nilihofia
-1.198487	wote walikubali
-1.198487	wote walikusanyika
-2.621733	ya </s>
-2.621733	ya balagha
-2.621733	ya boma
-2.621733	ya dhati
-2.621733	ya hospitalini
-2.621733	ya jeneza
-2.621733	ya juu
-2.621733	ya kifo
-2.621733	ya kijijini
-2.621733	ya kukonda
-2.621733	ya kumaliza
-2.621733	ya kumuacha
-1.83485	ya kupika
-2.621733	ya kupimwa
-2.621733	ya kupumzika
-2.621733	ya kurejea
-2.621733	ya kusaidia
-2.621733	ya kuzifungua
-2.621733	ya kwanza
-2.621733	ya kwenda
-2.621733	ya leah
-2.621733	ya likizo
-2.621733	ya machozi
-2.621733	ya madaktari
-2.621733	ya majani
-2.621733	ya maswali
-2.621733	ya mchele
-2.621733	ya mhunzi
-2.621733	ya miaka
-2.621733	ya mjini
-1.83485	ya mti
-2.621733	ya mto
-2.621733	ya muda
-2.621733	ya mvua
-2.621733	ya mwisho
-2.621733	ya nini
-2.621733	ya nyundo
-2.621733	ya pazia
-2.621733	ya pekee
-2.621733	ya pete
-1.636551	ya pilau	0.008281735
-2.621733	ya pili
-2.621733	ya siku
-2.621733	ya sofa
-2.621733	ya soko
-2.621733	ya uchovu
-2.621733	ya uguzwe
-2.621733	ya upande
-2.621733	ya wali
-1.675608	yake akila
-1.675608	yake baada
-1.675608	yake lodipo
-1.675608	yake na
-1.675608	yake nyumbani
-1.675608	yake yale
-1.596427	yako lazima
-0.809544	yako na	-0.09776906
-0.809544	yako unakaanga
-0.8974571	yale niliyoyaona
-1.374578	yalikuwa ni
-1.374578	yalikuwa tu
-1.374578	yalikuwa yamemdhilisha
-0.8974571	yaliniatua moyo
-0.8974571	yalinidondoka </s>
-0.8974571	yaliyonipitia akilini
-0.8974571	yaliyopita na
-0.8974571	yalizidi kuwa
-0.8974571	yamemdhilisha akabaki
-1.256702	yangu alikuwa
-2.043585	yangu alivyojiabilia
-2.043585	yangu aliyekuwa
-2.043585	yangu figo
-1.256702	yangu kwanza
-1.256702	yangu moja
-2.043585	yangu na
-2.043585	yangu ndugu
-2.043585	yangu pendo
-2.043585	yangu tukiwa
-2.043585	yangu tuliratibiwa
-1.93885	yao ah
-1.93885	yao aliondoka
-1.93885	yao bibi
-1.93885	yao kuelekea
-1.93885	yao kufanya
-1.93885	yao kwenye
-1.93885	yao mjini
-1.93885	yao tayari
-1.93885	yao waliamini
-1.93885	yao walikuja
-1.93885	yao watoto
-0.8974571	yenyewe ilikuwa
-1.198487	yetu hapo
-1.198487	yetu iliwadia
-1.198487	yeye lulu
-1.198487	yeye tulikuwa
-0.8974571	yeyote aliyetupenda
-0.8974571	yote siku
-0.8974571	yowe kwa
-1.800547	yuko chini
-1.800547	yuko karibu
-1.013664	yuko katika	-0.05039139
-1.800547	yuko nyuma
-0.8153653	yuko wapi
-1.374578	yule ajuza
-1.374578	yule hakusonga
-1.374578	yule kondoo
-1.374578	za bidhaa
-1.374578	za kale
-1.374578	za nyumbani
-1.499517	zaidi lakini
-1.499517	zaidi mama
-1.499517	zaidi siku
-1.499517	zaidi ya
-0.8974571	zake zote
-1.198487	zamani katika
-1.198487	zamani za
-0.8974571	zamu yetu
-0.8974571	zao kuhusu
-1.596427	zawadi alipendeza
-1.596427	zawadi aliwatayarishia
-1.596427	zawadi walizomletea
-1.596427	zawadi walizompelekea
-1.596427	zawadi yangu
-0.8974571	zili nyumba
-0.8974571	zilikuwa zimeharibika
-0.8974571	zilisombwa na
-0.8974571	zimeharibika ningempa
-0.8974571	ziwa kubwa
-0.8974571	ziwani giza
-0.8974571	zote zilikuwa

\3-grams:
-0.8576826	mama anaita wewe
-1.079531	mama anasema lakini
-1.079531	mama anasema sitaki
-0.4797265	na dawa ya
-0.6815913	vile hata na
-0.6815913	hiki hebu twende
-0.9826214	na hiki vile
-0.6815913	ni hiki pia
-0.9826214	ninapenda hiki hebu
-0.9826214	ninapenda hiki kweli
-0.4797265	ndiye huyu sasa
-0.6815913	na ile mpaka
-0.6815913	nyama ime </s>
-0.6815913	katika kabati lulu
-0.6815913	nilihisi kama kwamba
-0.6815913	yuko katika kabati
-0.6815913	hiki kweli ni
-0.4797265	wa kwenda umefika
-0.6815913	sitaki kwendaaa ni
-0.6815913	anasema lakini ninapenda
-0.6815913	sasa lakini ninapenda
-0.6815913	ni lazima twende
-0.6815913	kabati lulu wakati
-0.6815913	<s> maji na
-0.8576826	sasa mama anasema
-0.6815913	twende mama anasema
-0.6815913	wapi mama anaita
-0.6815913	mooo mooo moooooo
-0.6815913	ile mpaka unaiona
-0.6815913	hata na hiki
-0.9826214	lodipo na wakeze
-0.8576826	maji na nini
-0.6815913	nini na dawa
-0.2552725	odongo na apiyo
-0.5570824	odongo na opiyo
-0.6815913	pia na hiki
-0.6815913	vipepeo na ndege
-0.6815913	yako na ile
-0.6815913	wewe ndiye huyu
-0.6815913	kweli ni hiki
-0.6815913	kwendaaa ni lazima
-0.2048999	lakini ninapenda hiki
-0.6815913	na nini na
-0.6815913	unachemsha nyama yako
-0.6815913	unaiona nyama ime
-0.6815913	hiki pia na
-0.8576826	ya pilau unachemsha
-0.8576826	huyu sasa mama
-0.6815913	twende sasa lakini
-0.6815913	anasema sitaki kwendaaa
-0.6815913	hebu twende sasa
-0.6815913	lazima twende mama
-0.6815913	umefika uko wapi
-0.8576826	kwenda umefika uko
-0.6815913	pilau unachemsha nyama
-0.6815913	mpaka unaiona nyama
-0.6815913	umri wa miaka
-0.7015753	wakati wa kwenda
-0.4797265	lulu wakati wa
-0.4797265	na wakeze wawili
-0.6815913	uko wapi mama
-0.6815913	anaita wewe ndiye
-0.8576826	chini ya mti
-0.4797265	dawa ya pilau
-0.6815913	nyama yako na
-0.8576826	figo yangu moja
-1.079531	je yuko katika
-0.4797265	lulu yuko wapi

\end\
